%YAML:1.0
---
opencv_ml_rtrees:
   format: 3
   is_classifier: 1
   var_all: 10
   var_count: 9
   ord_var_count: 9
   cat_var_count: 1
   training_params:
      use_surrogates: 0
      max_categories: 10
      regression_accuracy: 0.
      max_depth: 20
      min_sample_count: 10
      cross_validation_folds: 0
      nactive_vars: 0
   global_var_idx: 1
   var_idx: [ 0, 1, 2, 3, 4, 5, 6, 7, 8 ]
   var_type: [ 0, 0, 0, 0, 0, 0, 0, 0, 0, 1 ]
   cat_ofs: [ 0, 0, 0, 0, 0, 0, 0, 0, 0, 0, 0, 0, 0, 0, 0, 0, 0, 0 ]
   class_labels: [ 13, 24 ]
   missing_subst: [ 0., 0., 0., 0., 0., 0., 0., 0., 0., 0. ]
   oob_error: 4.5317220543806644e-02
   ntrees: 1
   trees:
      -
         nodes:
            -
               depth: 0
               value: 13.
               norm_class_idx: 0
               splits:
                  - { var:0, quality:8.2571649169921875e+02,
                      le:1.5312428474426270e+00 }
            -
               depth: 1
               value: 13.
               norm_class_idx: 0
               splits:
                  - { var:2, quality:8.4101586914062500e+02,
                      le:1.5615725517272949e-01 }
            -
               depth: 2
               value: 13.
               norm_class_idx: 0
               splits:
                  - { var:2, quality:8.3864929199218750e+02,
                      le:-4.2351579666137695e-01 }
            -
               depth: 3
               value: 24.
               norm_class_idx: 1
            -
               depth: 3
               value: 13.
               norm_class_idx: 0
               splits:
                  - { var:6, quality:8.3321887207031250e+02,
                      le:1.1150000034376717e-07 }
            -
               depth: 4
               value: 13.
               norm_class_idx: 0
               splits:
                  - { var:1, quality:8.2588555908203125e+02,
                      le:-1.1946668624877930e+00 }
            -
               depth: 5
               value: 13.
               norm_class_idx: 0
               splits:
                  - { var:5, quality:1.4333333015441895e+01,
                      le:1.6293041408061981e-02 }
            -
               depth: 6
               value: 24.
               norm_class_idx: 1
            -
               depth: 6
               value: 13.
               norm_class_idx: 0
            -
               depth: 5
               value: 13.
               norm_class_idx: 0
               splits:
                  - { var:1, quality:8.1820446777343750e+02,
                      le:1.4227886199951172e+00 }
            -
               depth: 6
               value: 13.
               norm_class_idx: 0
               splits:
                  - { var:8, quality:8.1605517578125000e+02,
                      le:-5.3012332916259766e+00 }
            -
               depth: 7
               value: 13.
               norm_class_idx: 0
               splits:
                  - { var:8, quality:7.7747851562500000e+02,
                      le:-9.9606571197509766e+00 }
            -
               depth: 8
               value: 13.
               norm_class_idx: 0
               splits:
                  - { var:8, quality:4.2419561767578125e+02,
                      le:-1.3453905105590820e+01 }
            -
               depth: 9
               value: 13.
               norm_class_idx: 0
               splits:
                  - { var:2, quality:3.9599998474121094e+01,
                      le:-2.1349152922630310e-01 }
            -
               depth: 10
               value: 13.
               norm_class_idx: 0
            -
               depth: 10
               value: 13.
               norm_class_idx: 0
            -
               depth: 9
               value: 13.
               norm_class_idx: 0
               splits:
                  - { var:1, quality:3.8604998779296875e+02,
                      le:-4.5036983489990234e-01 }
            -
               depth: 10
               value: 13.
               norm_class_idx: 0
               splits:
                  - { var:6, quality:3.8666667938232422e+01,
                      le:-8.7549999250313704e-08 }
            -
               depth: 11
               value: 13.
               norm_class_idx: 0
            -
               depth: 11
               value: 13.
               norm_class_idx: 0
            -
               depth: 10
               value: 13.
               norm_class_idx: 0
            -
               depth: 8
               value: 13.
               norm_class_idx: 0
               splits:
                  - { var:8, quality:3.5726559448242188e+02,
                      le:-9.9404544830322266e+00 }
            -
               depth: 9
               value: 24.
               norm_class_idx: 1
            -
               depth: 9
               value: 13.
               norm_class_idx: 0
               splits:
                  - { var:0, quality:3.5603524780273438e+02,
                      le:2.5552749633789062e-01 }
            -
               depth: 10
               value: 13.
               norm_class_idx: 0
               splits:
                  - { var:7, quality:2.9701693725585938e+02,
                      le:4.0828239440917969e+01 }
            -
               depth: 11
               value: 13.
               norm_class_idx: 0
            -
               depth: 11
               value: 13.
               norm_class_idx: 0
               splits:
                  - { var:7, quality:118., le:4.0836536407470703e+01 }
            -
               depth: 12
               value: 24.
               norm_class_idx: 1
            -
               depth: 12
               value: 13.
               norm_class_idx: 0
            -
               depth: 10
               value: 13.
               norm_class_idx: 0
               splits:
                  - { var:1, quality:6.0057144165039062e+01,
                      le:1.0740479826927185e-01 }
            -
               depth: 11
               value: 13.
               norm_class_idx: 0
            -
               depth: 11
               value: 13.
               norm_class_idx: 0
               splits:
                  - { var:2, quality:2.7969696044921875e+01,
                      le:-2.2567489743232727e-01 }
            -
               depth: 12
               value: 24.
               norm_class_idx: 1
            -
               depth: 12
               value: 13.
               norm_class_idx: 0
               splits:
                  - { var:1, quality:2.9258064270019531e+01,
                      le:2.6656854152679443e-01 }
            -
               depth: 13
               value: 24.
               norm_class_idx: 1
            -
               depth: 13
               value: 13.
               norm_class_idx: 0
               splits:
                  - { var:1, quality:2.7738094329833984e+01,
                      le:3.7653997540473938e-01 }
            -
               depth: 14
               value: 13.
               norm_class_idx: 0
            -
               depth: 14
               value: 13.
               norm_class_idx: 0
               splits:
                  - { var:2, quality:2.6666666030883789e+01,
                      le:-1.8025204539299011e-01 }
            -
               depth: 15
               value: 13.
               norm_class_idx: 0
            -
               depth: 15
               value: 13.
               norm_class_idx: 0
            -
               depth: 7
               value: 13.
               norm_class_idx: 0
               splits:
                  - { var:2, quality:4.0400001525878906e+01,
                      le:-1.1567969620227814e-01 }
            -
               depth: 8
               value: 24.
               norm_class_idx: 1
            -
               depth: 8
               value: 13.
               norm_class_idx: 0
               splits:
                  - { var:8, quality:4.3046512603759766e+01,
                      le:-5.2733712196350098e+00 }
            -
               depth: 9
               value: 24.
               norm_class_idx: 1
            -
               depth: 9
               value: 13.
               norm_class_idx: 0
               splits:
                  - { var:1, quality:4.1400001525878906e+01,
                      le:1.3002364337444305e-01 }
            -
               depth: 10
               value: 13.
               norm_class_idx: 0
            -
               depth: 10
               value: 13.
               norm_class_idx: 0
            -
               depth: 6
               value: 13.
               norm_class_idx: 0
            -
               depth: 4
               value: 13.
               norm_class_idx: 0
               splits:
                  - { var:6, quality:1.4399999618530273e+01,
                      le:1.1350000050924791e-07 }
            -
               depth: 5
               value: 24.
               norm_class_idx: 1
            -
               depth: 5
               value: 13.
               norm_class_idx: 0
            -
               depth: 2
               value: 24.
               norm_class_idx: 1
               splits:
                  - { var:5, quality:1.7111110687255859e+01,
                      le:-6.9583672285079956e-01 }
            -
               depth: 3
               value: 13.
               norm_class_idx: 0
            -
               depth: 3
               value: 24.
               norm_class_idx: 1
               splits:
                  - { var:7, quality:18., le:3.9514907836914062e+01 }
            -
               depth: 4
               value: 24.
               norm_class_idx: 1
            -
               depth: 4
               value: 13.
               norm_class_idx: 0
            -
               depth: 1
               value: 24.
               norm_class_idx: 1
