%YAML:1.0
---
opencv_ml_rtrees:
   format: 3
   is_classifier: 1
   var_all: 7
   var_count: 6
   ord_var_count: 6
   cat_var_count: 1
   training_params:
      use_surrogates: 0
      max_categories: 10
      regression_accuracy: 0.
      max_depth: 20
      min_sample_count: 10
      cross_validation_folds: 0
      nactive_vars: 0
   global_var_idx: 1
   var_idx: [ 0, 1, 2, 3, 4, 5 ]
   var_type: [ 0, 0, 0, 0, 0, 0, 1 ]
   cat_ofs: [ 0, 0, 0, 0, 0, 0, 0, 0, 0, 0, 0, 0 ]
   class_labels: [ 13, 24 ]
   missing_subst: [ 0., 0., 0., 0., 0., 0., 0. ]
   oob_error: 2.2594142259414227e-01
   ntrees: 50
   trees:
      -
         nodes:
            -
               depth: 0
               value: 13.
               norm_class_idx: 0
               splits:
                  - { var:2, quality:3.6072525024414062e+02,
                      le:9.5213165283203125e+00 }
            -
               depth: 1
               value: 13.
               norm_class_idx: 0
               splits:
                  - { var:0, quality:1.0418918609619141e+02,
                      le:2.2727200388908386e-01 }
            -
               depth: 2
               value: 13.
               norm_class_idx: 0
               splits:
                  - { var:0, quality:5.9857143402099609e+01,
                      le:-1.1478602886199951e-01 }
            -
               depth: 3
               value: 13.
               norm_class_idx: 0
            -
               depth: 3
               value: 13.
               norm_class_idx: 0
               splits:
                  - { var:5, quality:2.9225807189941406e+01,
                      le:-1.8679220229387283e-02 }
            -
               depth: 4
               value: 13.
               norm_class_idx: 0
            -
               depth: 4
               value: 13.
               norm_class_idx: 0
               splits:
                  - { var:1, quality:2.3180952072143555e+01,
                      le:-3.3427563309669495e-01 }
            -
               depth: 5
               value: 24.
               norm_class_idx: 1
            -
               depth: 5
               value: 13.
               norm_class_idx: 0
               splits:
                  - { var:5, quality:1.9100000381469727e+01,
                      le:-9.3499999493360519e-03 }
            -
               depth: 6
               value: 24.
               norm_class_idx: 1
            -
               depth: 6
               value: 13.
               norm_class_idx: 0
               splits:
                  - { var:3, quality:19., le:5.9943065047264099e-02 }
            -
               depth: 7
               value: 13.
               norm_class_idx: 0
            -
               depth: 7
               value: 13.
               norm_class_idx: 0
            -
               depth: 2
               value: 13.
               norm_class_idx: 0
            -
               depth: 1
               value: 13.
               norm_class_idx: 0
               splits:
                  - { var:5, quality:2.7882626342773438e+02,
                      le:-5.0406463444232941e-02 }
            -
               depth: 2
               value: 13.
               norm_class_idx: 0
               splits:
                  - { var:4, quality:6.2176189422607422e+01,
                      le:2.9653124511241913e-02 }
            -
               depth: 3
               value: 13.
               norm_class_idx: 0
            -
               depth: 3
               value: 13.
               norm_class_idx: 0
               splits:
                  - { var:5, quality:5.8105262756347656e+01,
                      le:-6.9578781723976135e-02 }
            -
               depth: 4
               value: 13.
               norm_class_idx: 0
            -
               depth: 4
               value: 13.
               norm_class_idx: 0
               splits:
                  - { var:1, quality:1.7285715103149414e+01,
                      le:-3.1787553429603577e-01 }
            -
               depth: 5
               value: 13.
               norm_class_idx: 0
            -
               depth: 5
               value: 13.
               norm_class_idx: 0
            -
               depth: 2
               value: 13.
               norm_class_idx: 0
               splits:
                  - { var:1, quality:2.5240615844726562e+02,
                      le:4.9162673950195312e-01 }
            -
               depth: 3
               value: 13.
               norm_class_idx: 0
               splits:
                  - { var:3, quality:1.8551744079589844e+02,
                      le:-5.7961553335189819e-02 }
            -
               depth: 4
               value: 13.
               norm_class_idx: 0
               splits:
                  - { var:0, quality:5.5117645263671875e+01,
                      le:2.6973351836204529e-01 }
            -
               depth: 5
               value: 13.
               norm_class_idx: 0
            -
               depth: 5
               value: 13.
               norm_class_idx: 0
               splits:
                  - { var:3, quality:1.5666666984558105e+01,
                      le:-7.8755170106887817e-02 }
            -
               depth: 6
               value: 13.
               norm_class_idx: 0
            -
               depth: 6
               value: 13.
               norm_class_idx: 0
            -
               depth: 4
               value: 13.
               norm_class_idx: 0
               splits:
                  - { var:3, quality:1.3661471557617188e+02,
                      le:6.8802163004875183e-02 }
            -
               depth: 5
               value: 13.
               norm_class_idx: 0
               splits:
                  - { var:4, quality:1.1897375488281250e+02,
                      le:6.5152622759342194e-02 }
            -
               depth: 6
               value: 13.
               norm_class_idx: 0
               splits:
                  - { var:5, quality:1.2270227050781250e+02,
                      le:-1.0744960047304630e-02 }
            -
               depth: 7
               value: 24.
               norm_class_idx: 1
               splits:
                  - { var:0, quality:32., le:4.8362305760383606e-01 }
            -
               depth: 8
               value: 24.
               norm_class_idx: 1
               splits:
                  - { var:1, quality:3.1920000076293945e+01,
                      le:5.7489976286888123e-02 }
            -
               depth: 9
               value: 24.
               norm_class_idx: 1
               splits:
                  - { var:5, quality:1.6444444656372070e+01,
                      le:-4.2983531951904297e-02 }
            -
               depth: 10
               value: 24.
               norm_class_idx: 1
            -
               depth: 10
               value: 24.
               norm_class_idx: 1
               splits:
                  - { var:4, quality:1.1125000000000000e+01,
                      le:5.0057150423526764e-02 }
            -
               depth: 11
               value: 24.
               norm_class_idx: 1
               splits:
                  - { var:5, quality:1.2615385055541992e+01,
                      le:-3.8993414491415024e-02 }
            -
               depth: 12
               value: 13.
               norm_class_idx: 0
            -
               depth: 12
               value: 24.
               norm_class_idx: 1
               splits:
                  - { var:1, quality:1.0181818008422852e+01,
                      le:-5.6818194687366486e-02 }
            -
               depth: 13
               value: 24.
               norm_class_idx: 1
               splits:
                  - { var:5, quality:10., le:-2.4070765823125839e-02 }
            -
               depth: 14
               value: 13.
               norm_class_idx: 0
            -
               depth: 14
               value: 24.
               norm_class_idx: 1
            -
               depth: 13
               value: 13.
               norm_class_idx: 0
            -
               depth: 11
               value: 13.
               norm_class_idx: 0
            -
               depth: 9
               value: 24.
               norm_class_idx: 1
            -
               depth: 8
               value: 13.
               norm_class_idx: 0
            -
               depth: 7
               value: 13.
               norm_class_idx: 0
               splits:
                  - { var:4, quality:9.6237449645996094e+01,
                      le:1.5698015689849854e-02 }
            -
               depth: 8
               value: 13.
               norm_class_idx: 0
               splits:
                  - { var:2, quality:8.0768745422363281e+01,
                      le:9.6078891754150391e+00 }
            -
               depth: 9
               value: 24.
               norm_class_idx: 1
               splits:
                  - { var:3, quality:1.5133333206176758e+01,
                      le:3.6455783993005753e-02 }
            -
               depth: 10
               value: 24.
               norm_class_idx: 1
               splits:
                  - { var:4, quality:1.3333333015441895e+01,
                      le:-1.0918364860117435e-02 }
            -
               depth: 11
               value: 24.
               norm_class_idx: 1
            -
               depth: 11
               value: 24.
               norm_class_idx: 1
            -
               depth: 10
               value: 13.
               norm_class_idx: 0
            -
               depth: 9
               value: 13.
               norm_class_idx: 0
               splits:
                  - { var:5, quality:7.1537185668945312e+01,
                      le:-5.5430503562092781e-04 }
            -
               depth: 10
               value: 13.
               norm_class_idx: 0
               splits:
                  - { var:1, quality:3.1941177368164062e+01,
                      le:2.9762870073318481e-01 }
            -
               depth: 11
               value: 13.
               norm_class_idx: 0
               splits:
                  - { var:1, quality:2.8545454025268555e+01,
                      le:-4.8368886113166809e-01 }
            -
               depth: 12
               value: 24.
               norm_class_idx: 1
            -
               depth: 12
               value: 13.
               norm_class_idx: 0
               splits:
                  - { var:5, quality:2.8671428680419922e+01,
                      le:-6.9307750090956688e-03 }
            -
               depth: 13
               value: 13.
               norm_class_idx: 0
            -
               depth: 13
               value: 13.
               norm_class_idx: 0
               splits:
                  - { var:4, quality:2.6666666030883789e+01,
                      le:7.6014399528503418e-03 }
            -
               depth: 14
               value: 13.
               norm_class_idx: 0
            -
               depth: 14
               value: 13.
               norm_class_idx: 0
            -
               depth: 11
               value: 24.
               norm_class_idx: 1
            -
               depth: 10
               value: 13.
               norm_class_idx: 0
               splits:
                  - { var:2, quality:4.8506172180175781e+01,
                      le:9.6466388702392578e+00 }
            -
               depth: 11
               value: 13.
               norm_class_idx: 0
            -
               depth: 11
               value: 24.
               norm_class_idx: 1
               splits:
                  - { var:2, quality:4.4555770874023438e+01,
                      le:9.9679698944091797e+00 }
            -
               depth: 12
               value: 24.
               norm_class_idx: 1
               splits:
                  - { var:4, quality:3.8038959503173828e+01,
                      le:-1.8031395971775055e-02 }
            -
               depth: 13
               value: 24.
               norm_class_idx: 1
               splits:
                  - { var:3, quality:1.9105262756347656e+01,
                      le:4.8905555158853531e-02 }
            -
               depth: 14
               value: 24.
               norm_class_idx: 1
               splits:
                  - { var:5, quality:19., le:3.0429749749600887e-03 }
            -
               depth: 15
               value: 13.
               norm_class_idx: 0
            -
               depth: 15
               value: 24.
               norm_class_idx: 1
            -
               depth: 14
               value: 13.
               norm_class_idx: 0
            -
               depth: 13
               value: 13.
               norm_class_idx: 0
               splits:
                  - { var:1, quality:2.7511981964111328e+01,
                      le:1.2091075628995895e-01 }
            -
               depth: 14
               value: 13.
               norm_class_idx: 0
               splits:
                  - { var:1, quality:2.0333333969116211e+01,
                      le:-5.4408299922943115e-01 }
            -
               depth: 15
               value: 24.
               norm_class_idx: 1
            -
               depth: 15
               value: 13.
               norm_class_idx: 0
               splits:
                  - { var:2, quality:2.0363636016845703e+01,
                      le:9.8699998855590820e+00 }
            -
               depth: 16
               value: 13.
               norm_class_idx: 0
               splits:
                  - { var:3, quality:2.0666666030883789e+01,
                      le:8.4911044687032700e-03 }
            -
               depth: 17
               value: 13.
               norm_class_idx: 0
            -
               depth: 17
               value: 24.
               norm_class_idx: 1
            -
               depth: 16
               value: 24.
               norm_class_idx: 1
            -
               depth: 14
               value: 24.
               norm_class_idx: 1
               splits:
                  - { var:3, quality:1.3653845787048340e+01,
                      le:1.7659149598330259e-03 }
            -
               depth: 15
               value: 24.
               norm_class_idx: 1
               splits:
                  - { var:4, quality:12., le:8.9063849300146103e-03 }
            -
               depth: 16
               value: 24.
               norm_class_idx: 1
            -
               depth: 16
               value: 13.
               norm_class_idx: 0
            -
               depth: 15
               value: 13.
               norm_class_idx: 0
            -
               depth: 12
               value: 13.
               norm_class_idx: 0
               splits:
                  - { var:3, quality:1.4142857551574707e+01,
                      le:-4.1081570088863373e-02 }
            -
               depth: 13
               value: 24.
               norm_class_idx: 1
            -
               depth: 13
               value: 13.
               norm_class_idx: 0
               splits:
                  - { var:4, quality:1.2333333015441895e+01,
                      le:-7.4214354157447815e-02 }
            -
               depth: 14
               value: 13.
               norm_class_idx: 0
            -
               depth: 14
               value: 13.
               norm_class_idx: 0
            -
               depth: 8
               value: 13.
               norm_class_idx: 0
               splits:
                  - { var:2, quality:2.2666666030883789e+01,
                      le:9.9454736709594727e+00 }
            -
               depth: 9
               value: 13.
               norm_class_idx: 0
            -
               depth: 9
               value: 13.
               norm_class_idx: 0
               splits:
                  - { var:2, quality:1.0399999618530273e+01,
                      le:1.0257326126098633e+01 }
            -
               depth: 10
               value: 24.
               norm_class_idx: 1
            -
               depth: 10
               value: 13.
               norm_class_idx: 0
            -
               depth: 6
               value: 13.
               norm_class_idx: 0
            -
               depth: 5
               value: 13.
               norm_class_idx: 0
               splits:
                  - { var:2, quality:2.2086956024169922e+01,
                      le:9.5506877899169922e+00 }
            -
               depth: 6
               value: 24.
               norm_class_idx: 1
            -
               depth: 6
               value: 13.
               norm_class_idx: 0
               splits:
                  - { var:3, quality:2.1500000000000000e+01,
                      le:1.6618368029594421e-01 }
            -
               depth: 7
               value: 13.
               norm_class_idx: 0
            -
               depth: 7
               value: 13.
               norm_class_idx: 0
            -
               depth: 3
               value: 24.
               norm_class_idx: 1
               splits:
                  - { var:4, quality:9.4530975341796875e+01,
                      le:-3.7421606481075287e-02 }
            -
               depth: 4
               value: 13.
               norm_class_idx: 0
            -
               depth: 4
               value: 24.
               norm_class_idx: 1
               splits:
                  - { var:1, quality:8.9258064270019531e+01,
                      le:9.4171732664108276e-01 }
            -
               depth: 5
               value: 24.
               norm_class_idx: 1
               splits:
                  - { var:1, quality:4.0533332824707031e+01,
                      le:9.2297112941741943e-01 }
            -
               depth: 6
               value: 24.
               norm_class_idx: 1
               splits:
                  - { var:2, quality:4.2036365509033203e+01,
                      le:1.0170789718627930e+01 }
            -
               depth: 7
               value: 24.
               norm_class_idx: 1
               splits:
                  - { var:0, quality:4.4411766052246094e+01,
                      le:-2.5112053751945496e-01 }
            -
               depth: 8
               value: 13.
               norm_class_idx: 0
            -
               depth: 8
               value: 24.
               norm_class_idx: 1
               splits:
                  - { var:0, quality:4.3653060913085938e+01,
                      le:5.6234180927276611e-01 }
            -
               depth: 9
               value: 24.
               norm_class_idx: 1
               splits:
                  - { var:2, quality:4.3375000000000000e+01,
                      le:9.6184253692626953e+00 }
            -
               depth: 10
               value: 13.
               norm_class_idx: 0
            -
               depth: 10
               value: 24.
               norm_class_idx: 1
               splits:
                  - { var:0, quality:4.3173912048339844e+01,
                      le:-7.8085012733936310e-02 }
            -
               depth: 11
               value: 13.
               norm_class_idx: 0
            -
               depth: 11
               value: 24.
               norm_class_idx: 1
               splits:
                  - { var:3, quality:4.4044445037841797e+01,
                      le:4.4777989387512207e-02 }
            -
               depth: 12
               value: 24.
               norm_class_idx: 1
               splits:
                  - { var:5, quality:4.3200000762939453e+01,
                      le:1.0543430224061012e-02 }
            -
               depth: 13
               value: 24.
               norm_class_idx: 1
            -
               depth: 13
               value: 24.
               norm_class_idx: 1
            -
               depth: 12
               value: 13.
               norm_class_idx: 0
            -
               depth: 9
               value: 13.
               norm_class_idx: 0
            -
               depth: 7
               value: 13.
               norm_class_idx: 0
            -
               depth: 6
               value: 13.
               norm_class_idx: 0
            -
               depth: 5
               value: 24.
               norm_class_idx: 1
      -
         nodes:
            -
               depth: 0
               value: 13.
               norm_class_idx: 0
               splits:
                  - { var:3, quality:3.4416433715820312e+02,
                      le:-6.7474782466888428e-02 }
            -
               depth: 1
               value: 13.
               norm_class_idx: 0
               splits:
                  - { var:2, quality:6.9319999694824219e+01,
                      le:9.9147853851318359e+00 }
            -
               depth: 2
               value: 13.
               norm_class_idx: 0
            -
               depth: 2
               value: 13.
               norm_class_idx: 0
               splits:
                  - { var:3, quality:2.2600000381469727e+01,
                      le:-7.3496833443641663e-02 }
            -
               depth: 3
               value: 13.
               norm_class_idx: 0
            -
               depth: 3
               value: 13.
               norm_class_idx: 0
            -
               depth: 1
               value: 13.
               norm_class_idx: 0
               splits:
                  - { var:3, quality:3.0316571044921875e+02,
                      le:4.9597591161727905e-02 }
            -
               depth: 2
               value: 24.
               norm_class_idx: 1
               splits:
                  - { var:1, quality:2.5575540161132812e+02,
                      le:4.9271255731582642e-01 }
            -
               depth: 3
               value: 13.
               norm_class_idx: 0
               splits:
                  - { var:3, quality:1.7309725952148438e+02,
                      le:4.3331362307071686e-02 }
            -
               depth: 4
               value: 13.
               norm_class_idx: 0
               splits:
                  - { var:5, quality:1.7350691223144531e+02,
                      le:-5.3147155791521072e-02 }
            -
               depth: 5
               value: 13.
               norm_class_idx: 0
               splits:
                  - { var:1, quality:3.3058822631835938e+01,
                      le:4.1827708482742310e-01 }
            -
               depth: 6
               value: 13.
               norm_class_idx: 0
               splits:
                  - { var:3, quality:3.2400001525878906e+01,
                      le:3.3265419304370880e-02 }
            -
               depth: 7
               value: 13.
               norm_class_idx: 0
            -
               depth: 7
               value: 13.
               norm_class_idx: 0
            -
               depth: 6
               value: 13.
               norm_class_idx: 0
            -
               depth: 5
               value: 13.
               norm_class_idx: 0
               splits:
                  - { var:0, quality:1.4759176635742188e+02,
                      le:5.5941265821456909e-01 }
            -
               depth: 6
               value: 13.
               norm_class_idx: 0
               splits:
                  - { var:1, quality:1.3917971801757812e+02,
                      le:-5.1030468940734863e-01 }
            -
               depth: 7
               value: 24.
               norm_class_idx: 1
               splits:
                  - { var:2, quality:3.3260868072509766e+01,
                      le:9.0414609909057617e+00 }
            -
               depth: 8
               value: 13.
               norm_class_idx: 0
            -
               depth: 8
               value: 24.
               norm_class_idx: 1
               splits:
                  - { var:2, quality:3.4315788269042969e+01,
                      le:9.8139095306396484e+00 }
            -
               depth: 9
               value: 24.
               norm_class_idx: 1
               splits:
                  - { var:3, quality:3.0777778625488281e+01,
                      le:-1.3971455395221710e-02 }
            -
               depth: 10
               value: 24.
               norm_class_idx: 1
            -
               depth: 10
               value: 24.
               norm_class_idx: 1
               splits:
                  - { var:2, quality:1.3125000000000000e+01,
                      le:9.7219095230102539e+00 }
            -
               depth: 11
               value: 24.
               norm_class_idx: 1
               splits:
                  - { var:1, quality:1.4500000000000000e+01,
                      le:-8.2637327909469604e-01 }
            -
               depth: 12
               value: 13.
               norm_class_idx: 0
            -
               depth: 12
               value: 24.
               norm_class_idx: 1
            -
               depth: 11
               value: 13.
               norm_class_idx: 0
            -
               depth: 9
               value: 13.
               norm_class_idx: 0
            -
               depth: 7
               value: 13.
               norm_class_idx: 0
               splits:
                  - { var:5, quality:1.1419806671142578e+02,
                      le:6.1905004084110260e-02 }
            -
               depth: 8
               value: 13.
               norm_class_idx: 0
               splits:
                  - { var:3, quality:1.0980545806884766e+02,
                      le:-1.2486159801483154e-02 }
            -
               depth: 9
               value: 24.
               norm_class_idx: 1
               splits:
                  - { var:3, quality:4.3909091949462891e+01,
                      le:-1.9147500395774841e-02 }
            -
               depth: 10
               value: 24.
               norm_class_idx: 1
               splits:
                  - { var:4, quality:3.1108526229858398e+01,
                      le:5.1147237420082092e-02 }
            -
               depth: 11
               value: 24.
               norm_class_idx: 1
               splits:
                  - { var:5, quality:2.4182796478271484e+01,
                      le:-3.2200450077652931e-03 }
            -
               depth: 12
               value: 24.
               norm_class_idx: 1
               splits:
                  - { var:1, quality:1.0666666984558105e+01,
                      le:-1.5182822942733765e-01 }
            -
               depth: 13
               value: 13.
               norm_class_idx: 0
            -
               depth: 13
               value: 24.
               norm_class_idx: 1
            -
               depth: 12
               value: 24.
               norm_class_idx: 1
               splits:
                  - { var:2, quality:2.2850877761840820e+01,
                      le:9.5910758972167969e+00 }
            -
               depth: 13
               value: 13.
               norm_class_idx: 0
               splits:
                  - { var:4, quality:11., le:-6.3385874032974243e-02 }
            -
               depth: 14
               value: 13.
               norm_class_idx: 0
            -
               depth: 14
               value: 13.
               norm_class_idx: 0
            -
               depth: 13
               value: 24.
               norm_class_idx: 1
               splits:
                  - { var:3, quality:19., le:-2.3984238505363464e-02 }
            -
               depth: 14
               value: 24.
               norm_class_idx: 1
            -
               depth: 14
               value: 13.
               norm_class_idx: 0
            -
               depth: 11
               value: 13.
               norm_class_idx: 0
               splits:
                  - { var:3, quality:12., le:-2.6466950774192810e-02 }
            -
               depth: 12
               value: 13.
               norm_class_idx: 0
            -
               depth: 12
               value: 24.
               norm_class_idx: 1
            -
               depth: 10
               value: 24.
               norm_class_idx: 1
               splits:
                  - { var:4, quality:1.6888889312744141e+01,
                      le:3.6889747716486454e-03 }
            -
               depth: 11
               value: 24.
               norm_class_idx: 1
            -
               depth: 11
               value: 24.
               norm_class_idx: 1
            -
               depth: 9
               value: 13.
               norm_class_idx: 0
               splits:
                  - { var:2, quality:7.7269004821777344e+01,
                      le:9.7957582473754883e+00 }
            -
               depth: 10
               value: 13.
               norm_class_idx: 0
               splits:
                  - { var:4, quality:69., le:-1.4237090013921261e-02 }
            -
               depth: 11
               value: 13.
               norm_class_idx: 0
            -
               depth: 11
               value: 13.
               norm_class_idx: 0
               splits:
                  - { var:5, quality:5.8604244232177734e+01,
                      le:1.7476245760917664e-02 }
            -
               depth: 12
               value: 13.
               norm_class_idx: 0
               splits:
                  - { var:1, quality:5.2566265106201172e+01,
                      le:-3.2461208105087280e-01 }
            -
               depth: 13
               value: 13.
               norm_class_idx: 0
            -
               depth: 13
               value: 13.
               norm_class_idx: 0
               splits:
                  - { var:1, quality:5.0392406463623047e+01,
                      le:-1.5473216772079468e-01 }
            -
               depth: 14
               value: 24.
               norm_class_idx: 1
            -
               depth: 14
               value: 13.
               norm_class_idx: 0
               splits:
                  - { var:4, quality:4.9364673614501953e+01,
                      le:2.8509399853646755e-03 }
            -
               depth: 15
               value: 13.
               norm_class_idx: 0
               splits:
                  - { var:4, quality:1.6407894134521484e+01,
                      le:-8.2578798756003380e-03 }
            -
               depth: 16
               value: 13.
               norm_class_idx: 0
            -
               depth: 16
               value: 24.
               norm_class_idx: 1
               splits:
                  - { var:3, quality:1.2538461685180664e+01,
                      le:-3.8530898746103048e-03 }
            -
               depth: 17
               value: 24.
               norm_class_idx: 1
            -
               depth: 17
               value: 13.
               norm_class_idx: 0
               splits:
                  - { var:1, quality:1.1285714149475098e+01,
                      le:1.2798571586608887e-01 }
            -
               depth: 18
               value: 24.
               norm_class_idx: 1
            -
               depth: 18
               value: 13.
               norm_class_idx: 0
            -
               depth: 15
               value: 13.
               norm_class_idx: 0
               splits:
                  - { var:0, quality:3.7619049072265625e+01,
                      le:7.2892241179943085e-02 }
            -
               depth: 16
               value: 13.
               norm_class_idx: 0
               splits:
                  - { var:0, quality:2.6074073791503906e+01,
                      le:-1.7550733685493469e-01 }
            -
               depth: 17
               value: 24.
               norm_class_idx: 1
            -
               depth: 17
               value: 13.
               norm_class_idx: 0
               splits:
                  - { var:0, quality:2.5166666030883789e+01,
                      le:2.4119239300489426e-02 }
            -
               depth: 18
               value: 13.
               norm_class_idx: 0
               splits:
                  - { var:5, quality:11., le:2.1871400531381369e-03 }
            -
               depth: 19
               value: 13.
               norm_class_idx: 0
            -
               depth: 19
               value: 13.
               norm_class_idx: 0
            -
               depth: 18
               value: 13.
               norm_class_idx: 0
            -
               depth: 16
               value: 13.
               norm_class_idx: 0
               splits:
                  - { var:2, quality:1.5529411315917969e+01,
                      le:9.7322273254394531e+00 }
            -
               depth: 17
               value: 13.
               norm_class_idx: 0
               splits:
                  - { var:2, quality:1.2500000000000000e+01,
                      le:9.6961193084716797e+00 }
            -
               depth: 18
               value: 13.
               norm_class_idx: 0
               splits:
                  - { var:2, quality:9., le:9.6362991333007812e+00 }
            -
               depth: 19
               value: 13.
               norm_class_idx: 0
            -
               depth: 19
               value: 13.
               norm_class_idx: 0
            -
               depth: 18
               value: 24.
               norm_class_idx: 1
            -
               depth: 17
               value: 13.
               norm_class_idx: 0
            -
               depth: 12
               value: 24.
               norm_class_idx: 1
            -
               depth: 10
               value: 24.
               norm_class_idx: 1
               splits:
                  - { var:3, quality:14., le:1.8946900963783264e-02 }
            -
               depth: 11
               value: 24.
               norm_class_idx: 1
            -
               depth: 11
               value: 13.
               norm_class_idx: 0
            -
               depth: 8
               value: 13.
               norm_class_idx: 0
            -
               depth: 6
               value: 13.
               norm_class_idx: 0
            -
               depth: 4
               value: 24.
               norm_class_idx: 1
               splits:
                  - { var:0, quality:12., le:-6.9091790914535522e-01 }
            -
               depth: 5
               value: 13.
               norm_class_idx: 0
            -
               depth: 5
               value: 24.
               norm_class_idx: 1
            -
               depth: 3
               value: 24.
               norm_class_idx: 1
               splits:
                  - { var:0, quality:1.0080180358886719e+02,
                      le:-2.4515613913536072e-01 }
            -
               depth: 4
               value: 13.
               norm_class_idx: 0
            -
               depth: 4
               value: 24.
               norm_class_idx: 1
               splits:
                  - { var:5, quality:9.6174308776855469e+01,
                      le:-5.4510131478309631e-02 }
            -
               depth: 5
               value: 13.
               norm_class_idx: 0
            -
               depth: 5
               value: 24.
               norm_class_idx: 1
               splits:
                  - { var:4, quality:1.0317308044433594e+02,
                      le:-4.1293419897556305e-02 }
            -
               depth: 6
               value: 13.
               norm_class_idx: 0
            -
               depth: 6
               value: 24.
               norm_class_idx: 1
               splits:
                  - { var:0, quality:104., le:5.8970689773559570e-01 }
            -
               depth: 7
               value: 24.
               norm_class_idx: 1
            -
               depth: 7
               value: 13.
               norm_class_idx: 0
            -
               depth: 2
               value: 13.
               norm_class_idx: 0
               splits:
                  - { var:5, quality:8.0732765197753906e+01,
                      le:-2.4014510214328766e-02 }
            -
               depth: 3
               value: 13.
               norm_class_idx: 0
               splits:
                  - { var:1, quality:5.5142856597900391e+01,
                      le:-6.4175111055374146e-01 }
            -
               depth: 4
               value: 13.
               norm_class_idx: 0
               splits:
                  - { var:0, quality:1.2666666984558105e+01,
                      le:1.5441170334815979e-01 }
            -
               depth: 5
               value: 13.
               norm_class_idx: 0
            -
               depth: 5
               value: 13.
               norm_class_idx: 0
            -
               depth: 4
               value: 13.
               norm_class_idx: 0
            -
               depth: 3
               value: 13.
               norm_class_idx: 0
               splits:
                  - { var:3, quality:2.8290323257446289e+01,
                      le:8.5370913147926331e-02 }
            -
               depth: 4
               value: 13.
               norm_class_idx: 0
               splits:
                  - { var:5, quality:2.4057142257690430e+01,
                      le:2.4994751438498497e-03 }
            -
               depth: 5
               value: 24.
               norm_class_idx: 1
            -
               depth: 5
               value: 13.
               norm_class_idx: 0
               splits:
                  - { var:0, quality:1.7571428298950195e+01,
                      le:1.5632952749729156e-01 }
            -
               depth: 6
               value: 13.
               norm_class_idx: 0
            -
               depth: 6
               value: 13.
               norm_class_idx: 0
            -
               depth: 4
               value: 13.
               norm_class_idx: 0
      -
         nodes:
            -
               depth: 0
               value: 13.
               norm_class_idx: 0
               splits:
                  - { var:5, quality:3.5492132568359375e+02,
                      le:-4.6446494758129120e-02 }
            -
               depth: 1
               value: 13.
               norm_class_idx: 0
               splits:
                  - { var:4, quality:8.3800003051757812e+01,
                      le:5.6498739868402481e-02 }
            -
               depth: 2
               value: 13.
               norm_class_idx: 0
               splits:
                  - { var:4, quality:28., le:5.3962990641593933e-02 }
            -
               depth: 3
               value: 13.
               norm_class_idx: 0
               splits:
                  - { var:3, quality:2.6461538314819336e+01,
                      le:6.5403799526393414e-03 }
            -
               depth: 4
               value: 13.
               norm_class_idx: 0
               splits:
                  - { var:2, quality:9.7272729873657227e+00,
                      le:1.0281525611877441e+01 }
            -
               depth: 5
               value: 13.
               norm_class_idx: 0
               splits:
                  - { var:0, quality:9.1999998092651367e+00,
                      le:-3.9464312791824341e-01 }
            -
               depth: 6
               value: 24.
               norm_class_idx: 1
            -
               depth: 6
               value: 13.
               norm_class_idx: 0
            -
               depth: 5
               value: 24.
               norm_class_idx: 1
            -
               depth: 4
               value: 13.
               norm_class_idx: 0
            -
               depth: 3
               value: 24.
               norm_class_idx: 1
            -
               depth: 2
               value: 13.
               norm_class_idx: 0
            -
               depth: 1
               value: 13.
               norm_class_idx: 0
               splits:
                  - { var:3, quality:3.0629092407226562e+02,
                      le:-6.7314460873603821e-02 }
            -
               depth: 2
               value: 13.
               norm_class_idx: 0
            -
               depth: 2
               value: 13.
               norm_class_idx: 0
               splits:
                  - { var:1, quality:2.4072911071777344e+02,
                      le:9.2269277572631836e-01 }
            -
               depth: 3
               value: 13.
               norm_class_idx: 0
               splits:
                  - { var:3, quality:2.1560334777832031e+02,
                      le:4.8998665064573288e-02 }
            -
               depth: 4
               value: 13.
               norm_class_idx: 0
               splits:
                  - { var:0, quality:1.8062617492675781e+02,
                      le:5.5941265821456909e-01 }
            -
               depth: 5
               value: 24.
               norm_class_idx: 1
               splits:
                  - { var:0, quality:1.6836155700683594e+02,
                      le:-6.3758397102355957e-01 }
            -
               depth: 6
               value: 13.
               norm_class_idx: 0
            -
               depth: 6
               value: 24.
               norm_class_idx: 1
               splits:
                  - { var:4, quality:1.6036836242675781e+02,
                      le:-4.3091617524623871e-02 }
            -
               depth: 7
               value: 13.
               norm_class_idx: 0
               splits:
                  - { var:3, quality:2.5649999618530273e+01,
                      le:-4.5292004942893982e-02 }
            -
               depth: 8
               value: 24.
               norm_class_idx: 1
            -
               depth: 8
               value: 13.
               norm_class_idx: 0
               splits:
                  - { var:2, quality:2.5090909957885742e+01,
                      le:9.8879699707031250e+00 }
            -
               depth: 9
               value: 13.
               norm_class_idx: 0
               splits:
                  - { var:3, quality:22., le:4.5499429106712341e-02 }
            -
               depth: 10
               value: 13.
               norm_class_idx: 0
            -
               depth: 10
               value: 24.
               norm_class_idx: 1
            -
               depth: 9
               value: 13.
               norm_class_idx: 0
            -
               depth: 7
               value: 24.
               norm_class_idx: 1
               splits:
                  - { var:4, quality:1.4253289794921875e+02,
                      le:-1.4560310170054436e-02 }
            -
               depth: 8
               value: 24.
               norm_class_idx: 1
               splits:
                  - { var:0, quality:3.3545455932617188e+01,
                      le:-3.2445678114891052e-01 }
            -
               depth: 9
               value: 24.
               norm_class_idx: 1
            -
               depth: 9
               value: 24.
               norm_class_idx: 1
               splits:
                  - { var:0, quality:2.8761905670166016e+01,
                      le:-2.7112084627151489e-01 }
            -
               depth: 10
               value: 13.
               norm_class_idx: 0
            -
               depth: 10
               value: 24.
               norm_class_idx: 1
               splits:
                  - { var:5, quality:2.8484704971313477e+01,
                      le:1.2717249803245068e-02 }
            -
               depth: 11
               value: 24.
               norm_class_idx: 1
               splits:
                  - { var:2, quality:1.1166666984558105e+01,
                      le:9.9748973846435547e+00 }
            -
               depth: 12
               value: 13.
               norm_class_idx: 0
               splits:
                  - { var:3, quality:9.1428575515747070e+00,
                      le:-4.6428600326180458e-03 }
            -
               depth: 13
               value: 24.
               norm_class_idx: 1
            -
               depth: 13
               value: 13.
               norm_class_idx: 0
            -
               depth: 12
               value: 24.
               norm_class_idx: 1
            -
               depth: 11
               value: 24.
               norm_class_idx: 1
               splits:
                  - { var:5, quality:2.1333333969116211e+01,
                      le:8.9089475572109222e-02 }
            -
               depth: 12
               value: 24.
               norm_class_idx: 1
               splits:
                  - { var:2, quality:2.0666666030883789e+01,
                      le:9.7100725173950195e+00 }
            -
               depth: 13
               value: 24.
               norm_class_idx: 1
               splits:
                  - { var:0, quality:1.0666666984558105e+01,
                      le:5.3419291973114014e-02 }
            -
               depth: 14
               value: 13.
               norm_class_idx: 0
            -
               depth: 14
               value: 24.
               norm_class_idx: 1
            -
               depth: 13
               value: 24.
               norm_class_idx: 1
            -
               depth: 12
               value: 13.
               norm_class_idx: 0
            -
               depth: 8
               value: 24.
               norm_class_idx: 1
               splits:
                  - { var:2, quality:1.2077350616455078e+02,
                      le:9.7938194274902344e+00 }
            -
               depth: 9
               value: 13.
               norm_class_idx: 0
               splits:
                  - { var:5, quality:8.6628570556640625e+01,
                      le:-2.5900319218635559e-02 }
            -
               depth: 10
               value: 24.
               norm_class_idx: 1
               splits:
                  - { var:1, quality:1.3142857551574707e+01,
                      le:5.2928082644939423e-02 }
            -
               depth: 11
               value: 24.
               norm_class_idx: 1
            -
               depth: 11
               value: 24.
               norm_class_idx: 1
            -
               depth: 10
               value: 13.
               norm_class_idx: 0
               splits:
                  - { var:5, quality:7.9285713195800781e+01,
                      le:1.7679849639534950e-02 }
            -
               depth: 11
               value: 13.
               norm_class_idx: 0
               splits:
                  - { var:1, quality:7.4817634582519531e+01,
                      le:-1.5473216772079468e-01 }
            -
               depth: 12
               value: 24.
               norm_class_idx: 1
               splits:
                  - { var:0, quality:1.9819047927856445e+01,
                      le:1.2066495604813099e-02 }
            -
               depth: 13
               value: 24.
               norm_class_idx: 1
               splits:
                  - { var:1, quality:1.3142857551574707e+01,
                      le:-7.8833687305450439e-01 }
            -
               depth: 14
               value: 13.
               norm_class_idx: 0
            -
               depth: 14
               value: 24.
               norm_class_idx: 1
               splits:
                  - { var:4, quality:1.2666666984558105e+01,
                      le:1.4153960160911083e-02 }
            -
               depth: 15
               value: 24.
               norm_class_idx: 1
            -
               depth: 15
               value: 24.
               norm_class_idx: 1
            -
               depth: 13
               value: 13.
               norm_class_idx: 0
               splits:
                  - { var:1, quality:1.0571428298950195e+01,
                      le:-5.9289658069610596e-01 }
            -
               depth: 14
               value: 24.
               norm_class_idx: 1
            -
               depth: 14
               value: 13.
               norm_class_idx: 0
            -
               depth: 12
               value: 13.
               norm_class_idx: 0
               splits:
                  - { var:1, quality:6.5895469665527344e+01,
                      le:2.4230420589447021e-01 }
            -
               depth: 13
               value: 13.
               norm_class_idx: 0
               splits:
                  - { var:2, quality:4.6909091949462891e+01,
                      le:9.7563610076904297e+00 }
            -
               depth: 14
               value: 13.
               norm_class_idx: 0
               splits:
                  - { var:1, quality:4.6582633972167969e+01,
                      le:8.3475075662136078e-02 }
            -
               depth: 15
               value: 13.
               norm_class_idx: 0
               splits:
                  - { var:5, quality:3.2153846740722656e+01,
                      le:-7.9860503319650888e-04 }
            -
               depth: 16
               value: 13.
               norm_class_idx: 0
            -
               depth: 16
               value: 13.
               norm_class_idx: 0
               splits:
                  - { var:2, quality:13., le:9.7133388519287109e+00 }
            -
               depth: 17
               value: 13.
               norm_class_idx: 0
            -
               depth: 17
               value: 24.
               norm_class_idx: 1
            -
               depth: 15
               value: 13.
               norm_class_idx: 0
               splits:
                  - { var:4, quality:1.5909090995788574e+01,
                      le:-2.3138748947530985e-03 }
            -
               depth: 16
               value: 13.
               norm_class_idx: 0
            -
               depth: 16
               value: 13.
               norm_class_idx: 0
               splits:
                  - { var:5, quality:7., le:4.5661702752113342e-03 }
            -
               depth: 17
               value: 13.
               norm_class_idx: 0
            -
               depth: 17
               value: 13.
               norm_class_idx: 0
            -
               depth: 14
               value: 24.
               norm_class_idx: 1
            -
               depth: 13
               value: 13.
               norm_class_idx: 0
               splits:
                  - { var:2, quality:2.4258241653442383e+01,
                      le:9.6816349029541016e+00 }
            -
               depth: 14
               value: 13.
               norm_class_idx: 0
               splits:
                  - { var:0, quality:11., le:9.8739296197891235e-02 }
            -
               depth: 15
               value: 13.
               norm_class_idx: 0
            -
               depth: 15
               value: 13.
               norm_class_idx: 0
            -
               depth: 14
               value: 24.
               norm_class_idx: 1
               splits:
                  - { var:4, quality:1.6230770111083984e+01,
                      le:-8.9789601042866707e-03 }
            -
               depth: 15
               value: 13.
               norm_class_idx: 0
            -
               depth: 15
               value: 24.
               norm_class_idx: 1
               splits:
                  - { var:0, quality:1.7058822631835938e+01,
                      le:1.0610384494066238e-01 }
            -
               depth: 16
               value: 24.
               norm_class_idx: 1
               splits:
                  - { var:3, quality:1.3500000000000000e+01,
                      le:1.4471035450696945e-02 }
            -
               depth: 17
               value: 24.
               norm_class_idx: 1
               splits:
                  - { var:0, quality:1.2888889312744141e+01,
                      le:2.8018029406666756e-02 }
            -
               depth: 18
               value: 24.
               norm_class_idx: 1
            -
               depth: 18
               value: 24.
               norm_class_idx: 1
            -
               depth: 17
               value: 13.
               norm_class_idx: 0
            -
               depth: 16
               value: 13.
               norm_class_idx: 0
            -
               depth: 11
               value: 24.
               norm_class_idx: 1
               splits:
                  - { var:5, quality:1.1600000381469727e+01,
                      le:2.6622746139764786e-02 }
            -
               depth: 12
               value: 24.
               norm_class_idx: 1
            -
               depth: 12
               value: 13.
               norm_class_idx: 0
            -
               depth: 9
               value: 24.
               norm_class_idx: 1
               splits:
                  - { var:4, quality:4.5033332824707031e+01,
                      le:7.3900043964385986e-02 }
            -
               depth: 10
               value: 24.
               norm_class_idx: 1
               splits:
                  - { var:0, quality:4.4014842987060547e+01,
                      le:-1.5544375777244568e-01 }
            -
               depth: 11
               value: 24.
               norm_class_idx: 1
               splits:
                  - { var:5, quality:9.3333330154418945e+00,
                      le:2.4267423897981644e-02 }
            -
               depth: 12
               value: 13.
               norm_class_idx: 0
            -
               depth: 12
               value: 24.
               norm_class_idx: 1
            -
               depth: 11
               value: 24.
               norm_class_idx: 1
               splits:
                  - { var:0, quality:4.0901710510253906e+01,
                      le:2.5016996264457703e-01 }
            -
               depth: 12
               value: 24.
               norm_class_idx: 1
               splits:
                  - { var:2, quality:3.4166667938232422e+01,
                      le:9.8699998855590820e+00 }
            -
               depth: 13
               value: 24.
               norm_class_idx: 1
               splits:
                  - { var:2, quality:12., le:9.8675556182861328e+00 }
            -
               depth: 14
               value: 24.
               norm_class_idx: 1
            -
               depth: 14
               value: 13.
               norm_class_idx: 0
            -
               depth: 13
               value: 24.
               norm_class_idx: 1
            -
               depth: 12
               value: 24.
               norm_class_idx: 1
               splits:
                  - { var:1, quality:1.1222222328186035e+01,
                      le:-8.6367070674896240e-02 }
            -
               depth: 13
               value: 13.
               norm_class_idx: 0
            -
               depth: 13
               value: 24.
               norm_class_idx: 1
            -
               depth: 10
               value: 13.
               norm_class_idx: 0
            -
               depth: 5
               value: 13.
               norm_class_idx: 0
            -
               depth: 4
               value: 13.
               norm_class_idx: 0
               splits:
                  - { var:1, quality:4.6603775024414062e+01,
                      le:-1.2793290615081787e+00 }
            -
               depth: 5
               value: 24.
               norm_class_idx: 1
            -
               depth: 5
               value: 13.
               norm_class_idx: 0
               splits:
                  - { var:5, quality:4.9156864166259766e+01,
                      le:-4.3655693531036377e-02 }
            -
               depth: 6
               value: 24.
               norm_class_idx: 1
            -
               depth: 6
               value: 13.
               norm_class_idx: 0
               splits:
                  - { var:4, quality:4.8040817260742188e+01,
                      le:-1.2250848859548569e-01 }
            -
               depth: 7
               value: 13.
               norm_class_idx: 0
            -
               depth: 7
               value: 13.
               norm_class_idx: 0
               splits:
                  - { var:1, quality:4.7333332061767578e+01,
                      le:-6.3489890098571777e-01 }
            -
               depth: 8
               value: 13.
               norm_class_idx: 0
            -
               depth: 8
               value: 13.
               norm_class_idx: 0
            -
               depth: 3
               value: 24.
               norm_class_idx: 1
               splits:
                  - { var:2, quality:45., le:9.4716787338256836e+00 }
            -
               depth: 4
               value: 13.
               norm_class_idx: 0
            -
               depth: 4
               value: 24.
               norm_class_idx: 1
      -
         nodes:
            -
               depth: 0
               value: 13.
               norm_class_idx: 0
               splits:
                  - { var:3, quality:3.6229345703125000e+02,
                      le:-7.3496833443641663e-02 }
            -
               depth: 1
               value: 13.
               norm_class_idx: 0
            -
               depth: 1
               value: 13.
               norm_class_idx: 0
               splits:
                  - { var:3, quality:3.0626507568359375e+02,
                      le:4.8700779676437378e-02 }
            -
               depth: 2
               value: 13.
               norm_class_idx: 0
               splits:
                  - { var:2, quality:2.3109799194335938e+02,
                      le:9.4261054992675781e+00 }
            -
               depth: 3
               value: 13.
               norm_class_idx: 0
               splits:
                  - { var:1, quality:4.3666667938232422e+01,
                      le:-1.0323983430862427e+00 }
            -
               depth: 4
               value: 24.
               norm_class_idx: 1
            -
               depth: 4
               value: 13.
               norm_class_idx: 0
            -
               depth: 3
               value: 24.
               norm_class_idx: 1
               splits:
                  - { var:4, quality:2.0701588439941406e+02,
                      le:4.2973950505256653e-02 }
            -
               depth: 4
               value: 24.
               norm_class_idx: 1
               splits:
                  - { var:2, quality:1.8016667175292969e+02,
                      le:1.0239735603332520e+01 }
            -
               depth: 5
               value: 24.
               norm_class_idx: 1
               splits:
                  - { var:4, quality:1.7316455078125000e+02,
                      le:-9.6998617053031921e-02 }
            -
               depth: 6
               value: 13.
               norm_class_idx: 0
            -
               depth: 6
               value: 24.
               norm_class_idx: 1
               splits:
                  - { var:2, quality:1.8020263671875000e+02,
                      le:9.7564811706542969e+00 }
            -
               depth: 7
               value: 24.
               norm_class_idx: 1
               splits:
                  - { var:0, quality:9.8601615905761719e+01,
                      le:1.0186757147312164e-01 }
            -
               depth: 8
               value: 13.
               norm_class_idx: 0
               splits:
                  - { var:4, quality:6.0910884857177734e+01,
                      le:2.8407899662852287e-03 }
            -
               depth: 9
               value: 13.
               norm_class_idx: 0
               splits:
                  - { var:1, quality:3.2945453643798828e+01,
                      le:-4.3986329436302185e-01 }
            -
               depth: 10
               value: 24.
               norm_class_idx: 1
            -
               depth: 10
               value: 13.
               norm_class_idx: 0
               splits:
                  - { var:2, quality:3.1510639190673828e+01,
                      le:9.5977830886840820e+00 }
            -
               depth: 11
               value: 13.
               norm_class_idx: 0
            -
               depth: 11
               value: 24.
               norm_class_idx: 1
               splits:
                  - { var:0, quality:2.7362161636352539e+01,
                      le:-5.8724746108055115e-02 }
            -
               depth: 12
               value: 24.
               norm_class_idx: 1
            -
               depth: 12
               value: 13.
               norm_class_idx: 0
               splits:
                  - { var:0, quality:2.0727272033691406e+01,
                      le:5.4947424679994583e-02 }
            -
               depth: 13
               value: 13.
               norm_class_idx: 0
               splits:
                  - { var:1, quality:1.7952381134033203e+01,
                      le:9.3978859484195709e-02 }
            -
               depth: 14
               value: 13.
               norm_class_idx: 0
               splits:
                  - { var:3, quality:9.6000003814697266e+00,
                      le:8.4911044687032700e-03 }
            -
               depth: 15
               value: 13.
               norm_class_idx: 0
            -
               depth: 15
               value: 13.
               norm_class_idx: 0
            -
               depth: 14
               value: 24.
               norm_class_idx: 1
               splits:
                  - { var:0, quality:1.1600000381469727e+01,
                      le:1.8125314265489578e-02 }
            -
               depth: 15
               value: 13.
               norm_class_idx: 0
            -
               depth: 15
               value: 24.
               norm_class_idx: 1
            -
               depth: 13
               value: 13.
               norm_class_idx: 0
               splits:
                  - { var:0, quality:11., le:9.0642385184764862e-02 }
            -
               depth: 14
               value: 13.
               norm_class_idx: 0
            -
               depth: 14
               value: 24.
               norm_class_idx: 1
            -
               depth: 9
               value: 13.
               norm_class_idx: 0
               splits:
                  - { var:0, quality:3.3444828033447266e+01,
                      le:4.2922303080558777e-02 }
            -
               depth: 10
               value: 13.
               norm_class_idx: 0
               splits:
                  - { var:3, quality:17., le:-2.0974120125174522e-02 }
            -
               depth: 11
               value: 24.
               norm_class_idx: 1
            -
               depth: 11
               value: 13.
               norm_class_idx: 0
               splits:
                  - { var:1, quality:1.8409090042114258e+01,
                      le:-8.8394746184349060e-02 }
            -
               depth: 12
               value: 24.
               norm_class_idx: 1
               splits:
                  - { var:4, quality:9.2500000000000000e+00,
                      le:1.4153960160911083e-02 }
            -
               depth: 13
               value: 13.
               norm_class_idx: 0
            -
               depth: 13
               value: 24.
               norm_class_idx: 1
            -
               depth: 12
               value: 13.
               norm_class_idx: 0
               splits:
                  - { var:2, quality:14., le:9.6966037750244141e+00 }
            -
               depth: 13
               value: 13.
               norm_class_idx: 0
            -
               depth: 13
               value: 13.
               norm_class_idx: 0
            -
               depth: 10
               value: 13.
               norm_class_idx: 0
               splits:
                  - { var:5, quality:20., le:-2.8535440564155579e-02 }
            -
               depth: 11
               value: 24.
               norm_class_idx: 1
            -
               depth: 11
               value: 13.
               norm_class_idx: 0
            -
               depth: 8
               value: 24.
               norm_class_idx: 1
               splits:
                  - { var:5, quality:4.1876922607421875e+01,
                      le:-5.2678301930427551e-02 }
            -
               depth: 9
               value: 13.
               norm_class_idx: 0
            -
               depth: 9
               value: 24.
               norm_class_idx: 1
               splits:
                  - { var:3, quality:4.2894309997558594e+01,
                      le:1.9810348749160767e-03 }
            -
               depth: 10
               value: 24.
               norm_class_idx: 1
               splits:
                  - { var:0, quality:2.7050420761108398e+01,
                      le:4.8203468322753906e-01 }
            -
               depth: 11
               value: 24.
               norm_class_idx: 1
               splits:
                  - { var:1, quality:2.4736841201782227e+01,
                      le:3.5872337222099304e-01 }
            -
               depth: 12
               value: 24.
               norm_class_idx: 1
               splits:
                  - { var:4, quality:1.2717948913574219e+01,
                      le:-4.5821298845112324e-03 }
            -
               depth: 13
               value: 24.
               norm_class_idx: 1
               splits:
                  - { var:4, quality:9.2500000000000000e+00,
                      le:-2.3272030055522919e-02 }
            -
               depth: 14
               value: 24.
               norm_class_idx: 1
            -
               depth: 14
               value: 24.
               norm_class_idx: 1
            -
               depth: 13
               value: 13.
               norm_class_idx: 0
            -
               depth: 12
               value: 24.
               norm_class_idx: 1
            -
               depth: 11
               value: 13.
               norm_class_idx: 0
            -
               depth: 10
               value: 24.
               norm_class_idx: 1
               splits:
                  - { var:4, quality:2.2086956024169922e+01,
                      le:-4.0664974600076675e-02 }
            -
               depth: 11
               value: 13.
               norm_class_idx: 0
            -
               depth: 11
               value: 24.
               norm_class_idx: 1
               splits:
                  - { var:4, quality:2.1399999618530273e+01,
                      le:1.8574194982647896e-02 }
            -
               depth: 12
               value: 24.
               norm_class_idx: 1
            -
               depth: 12
               value: 24.
               norm_class_idx: 1
            -
               depth: 7
               value: 24.
               norm_class_idx: 1
               splits:
                  - { var:3, quality:9.4797981262207031e+01,
                      le:-6.4222306013107300e-02 }
            -
               depth: 8
               value: 13.
               norm_class_idx: 0
            -
               depth: 8
               value: 24.
               norm_class_idx: 1
               splits:
                  - { var:0, quality:9.8349205017089844e+01,
                      le:6.7357695102691650e-01 }
            -
               depth: 9
               value: 24.
               norm_class_idx: 1
               splits:
                  - { var:5, quality:9.5599998474121094e+01,
                      le:-3.8019903004169464e-02 }
            -
               depth: 10
               value: 13.
               norm_class_idx: 0
            -
               depth: 10
               value: 24.
               norm_class_idx: 1
               splits:
                  - { var:4, quality:9.4481010437011719e+01,
                      le:1.0780185461044312e-02 }
            -
               depth: 11
               value: 24.
               norm_class_idx: 1
               splits:
                  - { var:3, quality:5.8291442871093750e+01,
                      le:2.6056043803691864e-02 }
            -
               depth: 12
               value: 24.
               norm_class_idx: 1
               splits:
                  - { var:4, quality:5.3910446166992188e+01,
                      le:-8.0811023712158203e-02 }
            -
               depth: 13
               value: 13.
               norm_class_idx: 0
            -
               depth: 13
               value: 24.
               norm_class_idx: 1
               splits:
                  - { var:1, quality:5.6107692718505859e+01,
                      le:-5.3035658597946167e-01 }
            -
               depth: 14
               value: 13.
               norm_class_idx: 0
            -
               depth: 14
               value: 24.
               norm_class_idx: 1
               splits:
                  - { var:1, quality:5.5571430206298828e+01,
                      le:1.6112284362316132e-01 }
            -
               depth: 15
               value: 24.
               norm_class_idx: 1
               splits:
                  - { var:3, quality:2.1250000000000000e+01,
                      le:7.5678993016481400e-04 }
            -
               depth: 16
               value: 24.
               norm_class_idx: 1
               splits:
                  - { var:1, quality:2.0761905670166016e+01,
                      le:1.8790144473314285e-02 }
            -
               depth: 17
               value: 24.
               norm_class_idx: 1
               splits:
                  - { var:4, quality:1.9666666030883789e+01,
                      le:-6.1375141143798828e-02 }
            -
               depth: 18
               value: 24.
               norm_class_idx: 1
            -
               depth: 18
               value: 24.
               norm_class_idx: 1
            -
               depth: 17
               value: 13.
               norm_class_idx: 0
            -
               depth: 16
               value: 13.
               norm_class_idx: 0
            -
               depth: 15
               value: 24.
               norm_class_idx: 1
            -
               depth: 12
               value: 13.
               norm_class_idx: 0
               splits:
                  - { var:4, quality:9.2500000000000000e+00,
                      le:-1.4649415388703346e-02 }
            -
               depth: 13
               value: 24.
               norm_class_idx: 1
            -
               depth: 13
               value: 13.
               norm_class_idx: 0
            -
               depth: 11
               value: 24.
               norm_class_idx: 1
            -
               depth: 9
               value: 13.
               norm_class_idx: 0
            -
               depth: 5
               value: 13.
               norm_class_idx: 0
               splits:
                  - { var:5, quality:12., le:-5.1529653370380402e-02 }
            -
               depth: 6
               value: 24.
               norm_class_idx: 1
            -
               depth: 6
               value: 13.
               norm_class_idx: 0
            -
               depth: 4
               value: 13.
               norm_class_idx: 0
               splits:
                  - { var:1, quality:3.7543861389160156e+01,
                      le:2.9508441686630249e-01 }
            -
               depth: 5
               value: 13.
               norm_class_idx: 0
               splits:
                  - { var:0, quality:3.5142856597900391e+01,
                      le:-1.8236255645751953e-01 }
            -
               depth: 6
               value: 13.
               norm_class_idx: 0
            -
               depth: 6
               value: 13.
               norm_class_idx: 0
            -
               depth: 5
               value: 24.
               norm_class_idx: 1
            -
               depth: 2
               value: 13.
               norm_class_idx: 0
               splits:
                  - { var:1, quality:1.0088288116455078e+02,
                      le:1.1696693897247314e+00 }
            -
               depth: 3
               value: 13.
               norm_class_idx: 0
               splits:
                  - { var:4, quality:9.8507690429687500e+01,
                      le:3.1251769512891769e-02 }
            -
               depth: 4
               value: 13.
               norm_class_idx: 0
               splits:
                  - { var:5, quality:5.3882354736328125e+01,
                      le:9.2684011906385422e-04 }
            -
               depth: 5
               value: 13.
               norm_class_idx: 0
               splits:
                  - { var:4, quality:2.4454545974731445e+01,
                      le:-5.4115448147058487e-03 }
            -
               depth: 6
               value: 13.
               norm_class_idx: 0
            -
               depth: 6
               value: 13.
               norm_class_idx: 0
               splits:
                  - { var:1, quality:1.4821428298950195e+01,
                      le:-1.0484557598829269e-01 }
            -
               depth: 7
               value: 24.
               norm_class_idx: 1
            -
               depth: 7
               value: 13.
               norm_class_idx: 0
               splits:
                  - { var:4, quality:1.2153845787048340e+01,
                      le:2.8391849249601364e-02 }
            -
               depth: 8
               value: 13.
               norm_class_idx: 0
               splits:
                  - { var:5, quality:13., le:-7.4493749998509884e-03 }
            -
               depth: 9
               value: 13.
               norm_class_idx: 0
            -
               depth: 9
               value: 24.
               norm_class_idx: 1
            -
               depth: 8
               value: 24.
               norm_class_idx: 1
            -
               depth: 5
               value: 13.
               norm_class_idx: 0
            -
               depth: 4
               value: 13.
               norm_class_idx: 0
            -
               depth: 3
               value: 24.
               norm_class_idx: 1
      -
         nodes:
            -
               depth: 0
               value: 13.
               norm_class_idx: 0
               splits:
                  - { var:3, quality:3.4602517700195312e+02,
                      le:-7.4958786368370056e-02 }
            -
               depth: 1
               value: 13.
               norm_class_idx: 0
            -
               depth: 1
               value: 13.
               norm_class_idx: 0
               splits:
                  - { var:2, quality:2.9984289550781250e+02,
                      le:9.4487600326538086e+00 }
            -
               depth: 2
               value: 13.
               norm_class_idx: 0
               splits:
                  - { var:1, quality:5.8135593414306641e+01,
                      le:-9.9757415056228638e-01 }
            -
               depth: 3
               value: 24.
               norm_class_idx: 1
            -
               depth: 3
               value: 13.
               norm_class_idx: 0
               splits:
                  - { var:0, quality:5.5533332824707031e+01,
                      le:1.7431592941284180e-01 }
            -
               depth: 4
               value: 13.
               norm_class_idx: 0
            -
               depth: 4
               value: 13.
               norm_class_idx: 0
               splits:
                  - { var:0, quality:15., le:1.8844553828239441e-01 }
            -
               depth: 5
               value: 24.
               norm_class_idx: 1
            -
               depth: 5
               value: 13.
               norm_class_idx: 0
            -
               depth: 2
               value: 13.
               norm_class_idx: 0
               splits:
                  - { var:4, quality:2.7868045043945312e+02,
                      le:5.0843536853790283e-02 }
            -
               depth: 3
               value: 24.
               norm_class_idx: 1
               splits:
                  - { var:1, quality:2.3232865905761719e+02,
                      le:7.9899251461029053e-01 }
            -
               depth: 4
               value: 24.
               norm_class_idx: 1
               splits:
                  - { var:4, quality:1.8563418579101562e+02,
                      le:-4.3693244457244873e-02 }
            -
               depth: 5
               value: 13.
               norm_class_idx: 0
               splits:
                  - { var:3, quality:3.3400863647460938e+01,
                      le:-2.8306448366492987e-03 }
            -
               depth: 6
               value: 24.
               norm_class_idx: 1
               splits:
                  - { var:5, quality:1.2888889312744141e+01,
                      le:5.4041329771280289e-02 }
            -
               depth: 7
               value: 24.
               norm_class_idx: 1
            -
               depth: 7
               value: 13.
               norm_class_idx: 0
            -
               depth: 6
               value: 13.
               norm_class_idx: 0
               splits:
                  - { var:4, quality:2.5888889312744141e+01,
                      le:-8.4957152605056763e-02 }
            -
               depth: 7
               value: 13.
               norm_class_idx: 0
            -
               depth: 7
               value: 13.
               norm_class_idx: 0
            -
               depth: 5
               value: 24.
               norm_class_idx: 1
               splits:
                  - { var:0, quality:1.6331596374511719e+02,
                      le:5.7175910472869873e-01 }
            -
               depth: 6
               value: 24.
               norm_class_idx: 1
               splits:
                  - { var:3, quality:1.5820713806152344e+02,
                      le:8.1810221076011658e-02 }
            -
               depth: 7
               value: 24.
               norm_class_idx: 1
               splits:
                  - { var:5, quality:1.5153752136230469e+02,
                      le:1.7679849639534950e-02 }
            -
               depth: 8
               value: 24.
               norm_class_idx: 1
               splits:
                  - { var:5, quality:1.1238765716552734e+02,
                      le:-1.4457524754106998e-02 }
            -
               depth: 9
               value: 24.
               norm_class_idx: 1
               splits:
                  - { var:1, quality:3.9012821197509766e+01,
                      le:-4.3729329109191895e-01 }
            -
               depth: 10
               value: 13.
               norm_class_idx: 0
               splits:
                  - { var:1, quality:1.0142857551574707e+01,
                      le:-6.0001826286315918e-01 }
            -
               depth: 11
               value: 24.
               norm_class_idx: 1
            -
               depth: 11
               value: 13.
               norm_class_idx: 0
            -
               depth: 10
               value: 24.
               norm_class_idx: 1
               splits:
                  - { var:5, quality:3.4685714721679688e+01,
                      le:-3.6332368850708008e-02 }
            -
               depth: 11
               value: 24.
               norm_class_idx: 1
               splits:
                  - { var:5, quality:1.2941176414489746e+01,
                      le:-3.7237122654914856e-02 }
            -
               depth: 12
               value: 24.
               norm_class_idx: 1
               splits:
                  - { var:0, quality:1.1166666984558105e+01,
                      le:3.7541598081588745e-02 }
            -
               depth: 13
               value: 24.
               norm_class_idx: 1
               splits:
                  - { var:4, quality:8.2500000000000000e+00,
                      le:3.0375760048627853e-02 }
            -
               depth: 14
               value: 24.
               norm_class_idx: 1
            -
               depth: 14
               value: 13.
               norm_class_idx: 0
            -
               depth: 13
               value: 24.
               norm_class_idx: 1
            -
               depth: 12
               value: 13.
               norm_class_idx: 0
            -
               depth: 11
               value: 24.
               norm_class_idx: 1
               splits:
                  - { var:2, quality:2.6074073791503906e+01,
                      le:9.5478916168212891e+00 }
            -
               depth: 12
               value: 13.
               norm_class_idx: 0
            -
               depth: 12
               value: 24.
               norm_class_idx: 1
               splits:
                  - { var:3, quality:2.5399999618530273e+01,
                      le:2.1880589425563812e-02 }
            -
               depth: 13
               value: 24.
               norm_class_idx: 1
            -
               depth: 13
               value: 24.
               norm_class_idx: 1
            -
               depth: 9
               value: 13.
               norm_class_idx: 0
               splits:
                  - { var:2, quality:8.2726493835449219e+01,
                      le:9.7505741119384766e+00 }
            -
               depth: 10
               value: 13.
               norm_class_idx: 0
               splits:
                  - { var:1, quality:6.7495414733886719e+01,
                      le:-4.3966764211654663e-01 }
            -
               depth: 11
               value: 24.
               norm_class_idx: 1
            -
               depth: 11
               value: 13.
               norm_class_idx: 0
               splits:
                  - { var:1, quality:6.3249469757080078e+01,
                      le:1.1101431399583817e-01 }
            -
               depth: 12
               value: 13.
               norm_class_idx: 0
               splits:
                  - { var:1, quality:3.2841629028320312e+01,
                      le:-2.0370500162243843e-02 }
            -
               depth: 13
               value: 13.
               norm_class_idx: 0
               splits:
                  - { var:4, quality:1.0899999618530273e+01,
                      le:-1.9842148758471012e-03 }
            -
               depth: 14
               value: 24.
               norm_class_idx: 1
            -
               depth: 14
               value: 13.
               norm_class_idx: 0
               splits:
                  - { var:4, quality:8.7272729873657227e+00,
                      le:2.9371820390224457e-02 }
            -
               depth: 15
               value: 13.
               norm_class_idx: 0
               splits:
                  - { var:0, quality:11., le:-3.3082455396652222e-01 }
            -
               depth: 16
               value: 24.
               norm_class_idx: 1
            -
               depth: 16
               value: 13.
               norm_class_idx: 0
            -
               depth: 15
               value: 24.
               norm_class_idx: 1
            -
               depth: 13
               value: 13.
               norm_class_idx: 0
               splits:
                  - { var:4, quality:2.4285715103149414e+01,
                      le:-1.0833679698407650e-02 }
            -
               depth: 14
               value: 13.
               norm_class_idx: 0
            -
               depth: 14
               value: 13.
               norm_class_idx: 0
            -
               depth: 12
               value: 13.
               norm_class_idx: 0
               splits:
                  - { var:4, quality:3.6508476257324219e+01,
                      le:1.7718736082315445e-02 }
            -
               depth: 13
               value: 24.
               norm_class_idx: 1
               splits:
                  - { var:3, quality:3.3519325256347656e+01,
                      le:-3.2970749307423830e-03 }
            -
               depth: 14
               value: 24.
               norm_class_idx: 1
               splits:
                  - { var:2, quality:1.6523809432983398e+01,
                      le:9.5808677673339844e+00 }
            -
               depth: 15
               value: 13.
               norm_class_idx: 0
            -
               depth: 15
               value: 24.
               norm_class_idx: 1
               splits:
                  - { var:0, quality:1.5470588684082031e+01,
                      le:1.4042444527149200e-01 }
            -
               depth: 16
               value: 24.
               norm_class_idx: 1
               splits:
                  - { var:5, quality:1.5125000000000000e+01,
                      le:-2.9246101621538401e-03 }
            -
               depth: 17
               value: 13.
               norm_class_idx: 0
            -
               depth: 17
               value: 24.
               norm_class_idx: 1
               splits:
                  - { var:5, quality:1.4666666984558105e+01,
                      le:6.7574298009276390e-03 }
            -
               depth: 18
               value: 24.
               norm_class_idx: 1
            -
               depth: 18
               value: 24.
               norm_class_idx: 1
            -
               depth: 16
               value: 13.
               norm_class_idx: 0
            -
               depth: 14
               value: 13.
               norm_class_idx: 0
               splits:
                  - { var:4, quality:2.2166666030883789e+01,
                      le:-2.3138748947530985e-03 }
            -
               depth: 15
               value: 13.
               norm_class_idx: 0
               splits:
                  - { var:3, quality:12., le:2.2615235298871994e-02 }
            -
               depth: 16
               value: 13.
               norm_class_idx: 0
            -
               depth: 16
               value: 24.
               norm_class_idx: 1
            -
               depth: 15
               value: 13.
               norm_class_idx: 0
               splits:
                  - { var:0, quality:1.5375000000000000e+01,
                      le:7.2892241179943085e-02 }
            -
               depth: 16
               value: 13.
               norm_class_idx: 0
               splits:
                  - { var:0, quality:1.4166666984558105e+01,
                      le:2.2956915199756622e-02 }
            -
               depth: 17
               value: 24.
               norm_class_idx: 1
            -
               depth: 17
               value: 13.
               norm_class_idx: 0
               splits:
                  - { var:4, quality:12., le:3.6576000275090337e-04 }
            -
               depth: 18
               value: 24.
               norm_class_idx: 1
            -
               depth: 18
               value: 13.
               norm_class_idx: 0
            -
               depth: 16
               value: 24.
               norm_class_idx: 1
            -
               depth: 13
               value: 13.
               norm_class_idx: 0
            -
               depth: 10
               value: 24.
               norm_class_idx: 1
               splits:
                  - { var:2, quality:2.3764705657958984e+01,
                      le:1.0269456863403320e+01 }
            -
               depth: 11
               value: 24.
               norm_class_idx: 1
               splits:
                  - { var:3, quality:2.4166666030883789e+01,
                      le:-5.1770914345979691e-02 }
            -
               depth: 12
               value: 13.
               norm_class_idx: 0
            -
               depth: 12
               value: 24.
               norm_class_idx: 1
               splits:
                  - { var:4, quality:2.2941177368164062e+01,
                      le:5.6162946857511997e-03 }
            -
               depth: 13
               value: 24.
               norm_class_idx: 1
               splits:
                  - { var:5, quality:1.3571428298950195e+01,
                      le:-5.6334501132369041e-03 }
            -
               depth: 14
               value: 13.
               norm_class_idx: 0
            -
               depth: 14
               value: 24.
               norm_class_idx: 1
               splits:
                  - { var:1, quality:1.2153845787048340e+01,
                      le:6.4809840917587280e-01 }
            -
               depth: 15
               value: 24.
               norm_class_idx: 1
               splits:
                  - { var:1, quality:1.1399999618530273e+01,
                      le:2.2149056196212769e-02 }
            -
               depth: 16
               value: 24.
               norm_class_idx: 1
            -
               depth: 16
               value: 24.
               norm_class_idx: 1
            -
               depth: 15
               value: 13.
               norm_class_idx: 0
            -
               depth: 13
               value: 24.
               norm_class_idx: 1
            -
               depth: 11
               value: 13.
               norm_class_idx: 0
            -
               depth: 8
               value: 24.
               norm_class_idx: 1
               splits:
                  - { var:0, quality:4.7485713958740234e+01,
                      le:3.0572289228439331e-01 }
            -
               depth: 9
               value: 24.
               norm_class_idx: 1
               splits:
                  - { var:1, quality:4.5973331451416016e+01,
                      le:-8.7776106595993042e-01 }
            -
               depth: 10
               value: 13.
               norm_class_idx: 0
            -
               depth: 10
               value: 24.
               norm_class_idx: 1
               splits:
                  - { var:2, quality:4.4461540222167969e+01,
                      le:9.5927524566650391e+00 }
            -
               depth: 11
               value: 24.
               norm_class_idx: 1
               splits:
                  - { var:2, quality:1.1199999809265137e+01,
                      le:9.5809869766235352e+00 }
            -
               depth: 12
               value: 24.
               norm_class_idx: 1
            -
               depth: 12
               value: 13.
               norm_class_idx: 0
            -
               depth: 11
               value: 24.
               norm_class_idx: 1
            -
               depth: 9
               value: 13.
               norm_class_idx: 0
            -
               depth: 7
               value: 13.
               norm_class_idx: 0
            -
               depth: 6
               value: 13.
               norm_class_idx: 0
               splits:
                  - { var:3, quality:1.5791666984558105e+01,
                      le:1.4682891964912415e-01 }
            -
               depth: 7
               value: 13.
               norm_class_idx: 0
               splits:
                  - { var:0, quality:1.4399999618530273e+01,
                      le:6.0472965240478516e-01 }
            -
               depth: 8
               value: 13.
               norm_class_idx: 0
            -
               depth: 8
               value: 13.
               norm_class_idx: 0
            -
               depth: 7
               value: 24.
               norm_class_idx: 1
            -
               depth: 4
               value: 24.
               norm_class_idx: 1
               splits:
                  - { var:0, quality:6.1033897399902344e+01,
                      le:-4.7798469662666321e-01 }
            -
               depth: 5
               value: 13.
               norm_class_idx: 0
            -
               depth: 5
               value: 24.
               norm_class_idx: 1
               splits:
                  - { var:2, quality:5.7153846740722656e+01,
                      le:9.9284973144531250e+00 }
            -
               depth: 6
               value: 24.
               norm_class_idx: 1
            -
               depth: 6
               value: 24.
               norm_class_idx: 1
               splits:
                  - { var:0, quality:13., le:5.5778902769088745e-01 }
            -
               depth: 7
               value: 24.
               norm_class_idx: 1
            -
               depth: 7
               value: 13.
               norm_class_idx: 0
            -
               depth: 3
               value: 13.
               norm_class_idx: 0
               splits:
                  - { var:2, quality:6.4877655029296875e+01,
                      le:9.7723951339721680e+00 }
            -
               depth: 4
               value: 13.
               norm_class_idx: 0
               splits:
                  - { var:2, quality:3.3181819915771484e+01,
                      le:9.6567745208740234e+00 }
            -
               depth: 5
               value: 13.
               norm_class_idx: 0
               splits:
                  - { var:2, quality:11., le:9.6452465057373047e+00 }
            -
               depth: 6
               value: 13.
               norm_class_idx: 0
            -
               depth: 6
               value: 24.
               norm_class_idx: 1
            -
               depth: 5
               value: 13.
               norm_class_idx: 0
            -
               depth: 4
               value: 13.
               norm_class_idx: 0
               splits:
                  - { var:2, quality:3.5216217041015625e+01,
                      le:9.7790021896362305e+00 }
            -
               depth: 5
               value: 24.
               norm_class_idx: 1
            -
               depth: 5
               value: 13.
               norm_class_idx: 0
               splits:
                  - { var:1, quality:3.4599998474121094e+01,
                      le:2.8461891412734985e-01 }
            -
               depth: 6
               value: 13.
               norm_class_idx: 0
            -
               depth: 6
               value: 13.
               norm_class_idx: 0
      -
         nodes:
            -
               depth: 0
               value: 13.
               norm_class_idx: 0
               splits:
                  - { var:2, quality:3.4934573364257812e+02,
                      le:9.5194911956787109e+00 }
            -
               depth: 1
               value: 13.
               norm_class_idx: 0
               splits:
                  - { var:2, quality:1.0436781311035156e+02,
                      le:9.3737373352050781e+00 }
            -
               depth: 2
               value: 13.
               norm_class_idx: 0
               splits:
                  - { var:4, quality:7.9969696044921875e+01,
                      le:3.8366750814020634e-03 }
            -
               depth: 3
               value: 13.
               norm_class_idx: 0
            -
               depth: 3
               value: 13.
               norm_class_idx: 0
               splits:
                  - { var:4, quality:2.9258064270019531e+01,
                      le:6.3199400901794434e-03 }
            -
               depth: 4
               value: 24.
               norm_class_idx: 1
            -
               depth: 4
               value: 13.
               norm_class_idx: 0
               splits:
                  - { var:1, quality:31., le:-9.4493722915649414e-01 }
            -
               depth: 5
               value: 24.
               norm_class_idx: 1
            -
               depth: 5
               value: 13.
               norm_class_idx: 0
            -
               depth: 2
               value: 13.
               norm_class_idx: 0
               splits:
                  - { var:4, quality:2.6613332748413086e+01,
                      le:-3.8652896881103516e-02 }
            -
               depth: 3
               value: 13.
               norm_class_idx: 0
               splits:
                  - { var:4, quality:1.3500000000000000e+01,
                      le:-6.8563684821128845e-02 }
            -
               depth: 4
               value: 13.
               norm_class_idx: 0
            -
               depth: 4
               value: 13.
               norm_class_idx: 0
            -
               depth: 3
               value: 13.
               norm_class_idx: 0
               splits:
                  - { var:1, quality:1.9461538314819336e+01,
                      le:-1.6433417797088623e-02 }
            -
               depth: 4
               value: 24.
               norm_class_idx: 1
               splits:
                  - { var:1, quality:9.5714282989501953e+00,
                      le:-7.8433632850646973e-01 }
            -
               depth: 5
               value: 13.
               norm_class_idx: 0
            -
               depth: 5
               value: 24.
               norm_class_idx: 1
            -
               depth: 4
               value: 13.
               norm_class_idx: 0
            -
               depth: 1
               value: 13.
               norm_class_idx: 0
               splits:
                  - { var:3, quality:2.7100445556640625e+02,
                      le:-7.4061639606952667e-02 }
            -
               depth: 2
               value: 13.
               norm_class_idx: 0
            -
               depth: 2
               value: 24.
               norm_class_idx: 1
               splits:
                  - { var:5, quality:2.5236930847167969e+02,
                      le:-5.0406463444232941e-02 }
            -
               depth: 3
               value: 13.
               norm_class_idx: 0
               splits:
                  - { var:2, quality:5.0291374206542969e+01,
                      le:9.7972135543823242e+00 }
            -
               depth: 4
               value: 13.
               norm_class_idx: 0
               splits:
                  - { var:2, quality:2.2333333969116211e+01,
                      le:9.7922868728637695e+00 }
            -
               depth: 5
               value: 13.
               norm_class_idx: 0
               splits:
                  - { var:3, quality:2.0533332824707031e+01,
                      le:3.1885750591754913e-02 }
            -
               depth: 6
